digraph Tree {
node [shape=box, style="filled, rounded", color="black", fontname=helvetica] ;
edge [fontname=helvetica] ;
0 [label=<X<SUB>9</SUB> &le; 1.384<br/>gini = 0.32<br/>samples = 5<br/>value = [[4, 1]<br/>[1, 4]]>, fillcolor="#e5813900"] ;
1 [label=<gini = 0.0<br/>samples = 4<br/>value = [[4, 0]<br/>[0, 4]]>, fillcolor="#e58139ff"] ;
0 -> 1 [labeldistance=2.5, labelangle=45, headlabel="True"] ;
2 [label=<gini = 0.0<br/>samples = 1<br/>value = [[0, 1]<br/>[1, 0]]>, fillcolor="#e58139ff"] ;
0 -> 2 [labeldistance=2.5, labelangle=-45, headlabel="False"] ;
}